hello 0.93291 -0.11853 -0.98502 0.82195 0.87854 0.16446 0.34313 -0.83212 0.53296 -0.52638 -0.93837 0.57755 -0.30782 0.24656 0.23163 -0.70289 -0.63382 -0.77117 -0.97076 -0.02650 0.92980 -0.87088 0.08218 -0.06820 0.20293 -0.82214 0.15801 -0.46083 0.11287 0.28927 -0.03793 -0.28952 -0.50170 0.86703 -0.09322 0.06032 -0.96140 0.01620 -0.98844 -0.71246 -0.05435 -0.24531 -0.89165 0.17506 -0.67199 0.11466 -0.71151 0.87461 0.54196 0.91387 -0.71754 -0.38921 -0.92082 -0.44643 0.61303 -0.64531 -0.69086 0.90944 -0.69090 0.66778 -0.91787 -0.22763 -0.30082 -0.31658 0.63293 -0.04813 0.56578 -0.05832 0.63469 0.76314 -0.12081 0.56213 0.62948 -0.40864 -0.75225 -0.62876 -0.12788 -0.76107 0.05960 0.65884 -0.02960 0.63547 0.31278 0.28209 -0.30930 0.40532 0.61988 -0.68566 0.81598 -0.46134 -0.69031 0.68096 0.44026 0.58712 -0.10666 -0.85845 -0.20951 -0.90453 -0.42773 -0.92401 0.01343 -0.82466 0.86565 0.39877 -0.36603 0.89010 -0.86754 -0.48514 -0.85400 -0.14739 -0.59621 -0.20671 0.40972 0.77471 0.00104 0.63706 -0.27749 0.71737 0.03007 0.40483 -0.65062 0.16902 -0.39645 0.62570 0.06868 -0.00083 0.54665 0.09806 -0.33248 -0.73813 0.24901 0.85069 0.68468 -0.86050 -0.34943 -0.99659 0.34939 0.27656 0.51582 -0.70345 -0.56593 -0.13446 0.47345 -0.58576 0.64567 -0.23760 0.74857 0.92005 0.07498 0.84213 -0.15593 0.37054 0.69382 0.67754 -0.81426 -0.47937 -0.17948 0.71565 -0.44651 -0.77252 -0.24930 -0.57223 0.43247 0.17502 -0.89500 0.75486 -0.11889 0.55377 -0.66936 -0.38417 -0.85335 -0.21002 -0.14218 0.36559 -0.04082 -0.19898 -0.04408 -0.43748 -0.26095 0.20099 -0.58786 0.03773 0.85935 -0.08517 0.33662 0.31969 0.60269 0.45110 0.32141 -0.79258 -0.26673 0.58812 -0.86961 -0.71996 0.81072 0.17603 0.96034 0.50716 0.99136 -0.40276 0.37211 -0.33883 0.89194 -0.41244 -0.61087 0.62857 -0.44193 0.06807 0.20441 -0.32073 -0.33153 -0.35788 -0.46499 0.51934 0.17846 0.09649 0.64828 -0.48570 -0.72583 -0.94324 -0.92529 0.98135 0.94763 0.33320 0.98132 0.03131 -0.13089 0.03057 -0.86201 0.51916 -0.38968 0.39616 0.81901 -0.56080 0.00875 0.30628 0.62192 0.36550 -0.33782 0.12836 -0.67493 -0.00117 0.88010 0.90037 -0.72012 0.06463 0.23972 -0.70894 0.89798 -0.51343 -0.67150 0.01286 0.01001 0.54690 0.70635 -0.34699 0.41645 0.12344 0.07016 0.19840 -0.10732 -0.25659 0.85945 0.52580 0.35174 0.77262 0.20808 -0.85820 -0.54415 0.60604 -0.30763 0.87924 0.37810 -0.24043 -0.01443 -0.89510 -0.10385 -0.83964 -0.41367 0.85858 -0.70421 0.35383 0.30158 0.38614 0.58894 0.72851 -0.28678 -0.25718 -0.65190 0.27885 -0.57546 -0.60710 0.98018 0.24084 0.46129 0.00371 -0.73500 0.82036 0.30249 -0.90098
world 0.82798 -0.06390 0.19552 -0.25642 -0.20669 0.55682 -0.53166 -0.98251 -0.37450 0.97075 -0.75905 0.19981 0.73015 0.06798 0.18713 0.07439 -0.35553 -0.27429 0.85321 0.42429 0.28537 -0.08626 0.82194 0.75367 0.93430 0.08712 -0.18278 -0.61656 -0.45319 0.73540 -0.65151 0.89192 0.17272 0.69412 0.06024 0.50952 0.17441 0.65615 0.02867 0.44842 0.60701 -0.25394 -0.79483 0.35000 0.70056 0.66811 -0.74591 0.56883 -0.02379 0.09271 -0.73632 0.53930 -0.52205 0.39700 -0.32938 0.91322 0.42300 -0.29005 0.09610 -0.62331 -0.05415 0.86227 0.85804 -0.36091 -0.11684 0.04974 0.07834 0.97918 -0.82826 -0.60508 0.21541 -0.32821 -0.24449 0.38983 -0.60081 -0.94124 0.94166 -0.36793 -0.80050 -0.88862 0.35929 -0.15201 -0.32009 0.95937 0.85919 0.42954 0.80507 -0.66747 0.94486 -0.98230 0.19320 0.84295 0.81975 0.40765 0.85203 0.21876 -0.68783 0.84152 -0.61140 -0.09410 -0.10994 0.00368 -0.32721 -0.46248 0.77782 -0.21645 0.37112 -0.01290 -0.50462 -0.42759 0.94039 0.80781 -0.68474 -0.53488 0.91790 0.84299 -0.29230 0.08770 -0.13980 -0.11146 0.09976 0.55981 0.43640 0.43488 -0.85837 -0.51120 0.29292 0.42744 -0.02910 0.55902 0.91331 0.38499 0.66480 -0.34545 0.63493 0.03675 0.61130 0.36455 -0.39452 0.54018 0.59936 0.00213 -0.71439 -0.24910 -0.64587 -0.72610 -0.39724 -0.02301 0.60243 0.20217 -0.46595 0.83376 0.89854 0.71964 -0.05600 0.74376 -0.66498 0.58398 -0.53943 -0.50050 -0.86637 0.65111 0.63160 0.66102 0.12278 -0.71026 -0.21187 -0.56426 0.12088 -0.70765 -0.57588 0.44872 0.23622 0.35919 0.03687 -0.30743 -0.61738 -0.55271 0.10672 -0.96469 -0.27366 -0.11946 0.36500 -0.97786 -0.15530 -0.15656 0.88609 0.29697 0.03707 0.51410 0.54337 0.56077 0.12725 -0.38905 0.18161 -0.95962 0.39641 -0.75317 0.93898 0.14396 0.51849 -0.20955 -0.58124 -0.13737 -0.77695 -0.17476 0.71348 0.21915 0.82503 0.44189 0.57371 0.49548 -0.54087 -0.87346 -0.24014 -0.74598 0.34968 -0.94246 0.01683 0.60116 0.46001 -0.96463 -0.90963 0.89378 -0.93916 0.50834 0.76615 -0.53860 0.24529 0.15219 0.78600 -0.51321 -0.08206 -0.47330 -0.16514 0.48310 0.04447 -0.98093 -0.41573 0.30898 0.90938 0.18950 0.82556 0.40102 0.30504 0.25788 0.21221 0.84099 -0.15043 -0.13050 -0.32189 -0.42635 -0.81191 0.77733 0.66660 0.46814 0.13970 -0.32918 0.05494 0.20317 0.31681 -0.18337 -0.11556 -0.63464 -0.78671 0.80189 -0.33757 0.17528 0.94727 -0.61976 0.03543 -0.20721 -0.36411 0.02574 0.27514 0.89283 0.28315 -0.33930 0.45222 0.22779 -0.47584 0.74060 -0.84731 0.82424 -0.09868 0.22251 -0.97898 -0.92732 0.22038 -0.78417 0.32837 0.40187 -0.64180 0.14680 -0.46632 0.66116 0.50852 0.64060 -0.37914 0.87504
code -0.93542 0.14564 -0.32519 0.08503 0.47776 -0.82423 0.54111 0.87139 0.55193 -0.96636 -0.83174 0.68471 0.11516 -0.30911 0.36116 0.63195 0.21938 -0.96390 -0.08858 -0.56380 -0.30314 -0.33063 -0.22349 0.39090 -0.93752 -0.73270 -0.28335 0.48931 -0.80714 -0.46751 -0.68293 0.23712 0.12045 -0.01252 -0.83557 0.57853 0.50193 0.34831 0.67760 -0.15905 -0.37026 0.08342 0.24900 0.14897 0.41726 -0.65754 -0.13493 -0.00089 -0.72070 0.00176 -0.04786 0.15143 -0.38964 -0.44626 -0.71418 -0.73712 0.98667 0.32629 0.98506 -0.47755 -0.37703 -0.40942 -0.69004 0.26526 0.92877 -0.08909 -0.47721 -0.26260 -0.90043 -0.30443 0.57611 0.40765 -0.98245 -0.92511 0.22769 -0.62098 0.65007 0.94747 0.30437 0.35268 0.60481 -0.36755 0.85054 0.81641 -0.16868 0.87161 -0.10881 0.03799 0.91535 0.26346 -0.33096 -0.61005 0.89688 -0.36938 -0.19404 -0.26981 -0.14584 -0.22241 0.88310 0.34961 -0.48612 0.86463 0.21513 -0.09141 -0.28210 0.01685 0.87307 -0.63386 -0.24586 -0.09154 0.83680 0.66793 0.55889 -0.73474 -0.24890 0.85053 -0.17790 0.21826 -0.49183 -0.34698 -0.11599 -0.37244 0.32516 0.25080 0.62086 0.44075 0.12026 -0.64742 -0.10094 0.51917 -0.09869 -0.67182 -0.08862 -0.01947 0.33065 0.69043 -0.88399 -0.39805 -0.57622 -0.73471 0.87557 0.15852 -0.62133 0.95372 0.74044 -0.25422 -0.41702 0.15881 -0.12850 -0.06077 0.88810 0.15161 0.53167 0.91966 -0.80803 0.99057 0.94538 0.71618 -0.77023 -0.70685 -0.74068 -0.05763 0.73249 0.75509 -0.95795 0.55874 -0.58799 -0.37279 -0.48724 0.81351 -0.15242 0.96187 -0.41082 -0.28071 -0.53920 -0.37266 -0.58985 -0.39862 0.48381 0.05713 0.96876 0.05141 0.46515 -0.48646 0.91255 0.36931 -0.62983 0.21709 -0.92108 -0.31429 0.02625 0.22235 -0.09066 -0.75398 -0.83796 0.32300 0.27047 0.03893 -0.78853 -0.35263 0.84849 -0.46324 0.94389 -0.24681 -0.18706 -0.94519 -0.55609 0.29496 0.12832 0.56802 -0.87303 -0.87355 -0.25530 0.43433 -0.02127 0.29822 -0.99951 0.64564 0.23861 0.34708 0.72917 0.61233 -0.75925 -0.44422 0.11073 0.89159 -0.48984 -0.40370 0.57907 -0.87370 0.48940 -0.41774 0.34222 -0.31618 -0.04966 0.27657 -0.92510 -0.16639 0.76976 0.49089 -0.57650 0.45161 0.57082 -0.97550 0.79917 0.06121 0.28134 -0.06252 -0.45507 0.46716 0.99995 0.17050 -0.89160 0.20681 -0.15571 0.90142 -0.10581 0.97836 0.80238 -0.92239 0.25498 -0.47513 -0.58044 0.21250 0.81880 0.60904 -0.94823 0.29528 0.46503 -0.32381 0.85131 0.95534 -0.83901 -0.76733 -0.09590 -0.93671 -0.19347 -0.20585 0.64399 0.50616 0.46875 0.32452 0.64479 -0.32473 -0.87694 -0.16362 -0.18138 0.32449 -0.11077 0.93935 0.34393 0.02238 -0.27412 0.01192 0.90049 0.14641 -0.34625 0.92460 0.13229 -0.02489
get 0.72131 -0.46309 -0.28107 -0.06419 0.94312 -0.71054 0.91997 0.73830 -0.45158 0.71061 0.81680 0.76875 -0.08917 0.15822 -0.46275 -0.82160 0.15708 0.67280 -0.04315 -0.35489 0.06168 -0.79772 0.07889 -0.50566 -0.58252 -0.80803 0.62128 0.54074 0.43442 0.70988 0.60828 0.40697 -0.60653 0.66967 0.97437 0.76176 0.52750 0.30103 -0.30244 -0.44215 0.02790 0.30225 -0.91855 -0.06753 -0.91740 -0.94558 -0.77750 0.79059 -0.64051 0.03985 -0.14183 0.19615 0.63626 -0.68075 -0.01465 -0.85971 0.94476 -0.84596 -0.60853 -0.08765 -0.07763 -0.77357 0.33754 -0.21775 0.84404 -0.43736 -0.85335 0.92142 -0.93113 0.04722 -0.38406 0.75039 -0.69612 -0.48289 0.37879 0.06164 -0.35065 -0.51576 -0.10763 0.05837 0.86921 -0.20180 -0.76382 0.82510 0.62206 0.41703 -0.87827 0.15749 -0.22522 -0.50934 0.79659 0.50432 0.61840 -0.62038 -0.73010 0.86932 0.38324 -0.97208 -0.39664 0.04515 -0.73995 0.13703 -0.40863 -0.36907 -0.10087 -0.52424 0.52156 0.09040 -0.12915 -0.73218 -0.36403 -0.72307 0.61054 -0.33817 -0.65184 -0.58150 -0.48049 -0.27837 0.61100 0.27495 -0.43116 0.95866 0.06775 -0.83873 -0.20899 -0.20499 -0.54958 0.67935 -0.28255 -0.48870 -0.72768 -0.72645 0.93097 0.71885 -0.08604 -0.12885 -0.21313 -0.21629 -0.86042 -0.38477 0.20613 -0.89075 -0.90790 0.39662 -0.86399 0.43562 -0.53954 -0.62742 0.39294 -0.84694 0.50263 0.50711 0.16684 -0.26644 -0.71973 -0.10724 -0.80316 0.53320 -0.11749 -0.04583 -0.10659 0.03483 -0.72239 0.04611 0.94791 0.60373 -0.58727 0.90470 0.00129 -0.52746 0.77031 -0.74466 -0.28860 -0.99695 0.71270 -0.90903 -0.70261 0.65229 0.84288 0.51859 -0.57111 0.51416 -0.37562 -0.32347 0.27375 -0.21589 -0.86938 -0.45087 0.25171 0.79136 -0.22196 -0.73752 -0.93643 0.66794 0.06555 -0.92638 -0.69553 -0.14492 0.28968 0.04493 0.80014 0.15778 0.68094 0.65888 0.17957 -0.12761 -0.39756 -0.37433 0.22458 0.46593 0.44923 -0.64347 0.11925 -0.28399 -0.10475 0.89994 0.99299 0.04757 0.84031 -0.10507 0.21460 0.52883 -0.50452 -0.76474 0.04829 -0.57172 0.98667 0.20104 0.32277 -0.47215 -0.77560 0.64045 0.87038 -0.25601 -0.80285 0.78237 -0.25607 -0.39290 0.47580 -0.11013 -0.77162 -0.42522 0.28009 0.23896 -0.00074 0.51863 0.87073 0.88231 0.71402 -0.89253 0.40049 0.68795 0.89587 -0.91802 0.69217 0.45008 0.27270 0.71130 -0.54810 0.77502 0.40705 0.57898 -0.00166 0.76446 0.17990 -0.75826 -0.57754 -0.31161 -0.14275 -0.93629 0.08358 0.49903 0.55980 -0.26115 -0.20337 0.70041 -0.36185 -0.63603 -0.15894 -0.97012 -0.04637 0.03446 0.15109 -0.31524 0.90173 0.30305 0.08417 -0.27533 0.44839 -0.63294 0.54427 0.88202 0.37909 -0.67812 0.39853 0.92215 0.76699 0.87431 0.64730 -0.31263
user 0.18412 0.06093 -0.79014 0.83029 -0.01476 0.27132 0.64200 -0.15084 0.57773 -0.87809 -0.17712 0.96370 0.95019 0.67462 -0.17187 0.40027 0.88837 0.31967 0.20584 -0.34189 0.05844 -0.77669 -0.63001 0.60740 -0.42668 0.55386 0.69303 0.39909 0.60225 0.44402 0.71920 -0.84616 -0.45219 0.89778 -0.66334 -0.00010 0.72932 0.28015 -0.65580 -0.90008 0.97564 0.29255 -0.23794 0.30444 -0.87602 0.26739 0.68807 -0.36151 -0.40777 -0.29375 -0.76722 0.17445 0.24113 0.19042 0.28379 -0.15447 -0.02660 -0.91600 -0.08291 0.17431 -0.93175 0.62016 -0.85829 -0.11850 0.92143 -0.85387 -0.48711 0.30389 0.80038 0.75518 -0.12682 -0.93975 0.07886 0.54279 -0.60046 0.70876 -0.41000 0.66407 0.32719 -0.51686 0.24864 0.09473 -0.68582 0.37465 -0.90209 0.59450 -0.80378 0.14455 0.76216 -0.80001 -0.90738 -0.54715 -0.94440 -0.18349 0.35458 -0.34133 -0.30958 0.64351 -0.69651 -0.07357 -0.30234 -0.29546 0.41425 0.56296 -0.75568 -0.07513 -0.46683 -0.96589 -0.07210 0.02970 -0.12029 0.92163 0.95686 0.10944 0.48146 -0.52947 0.95299 -0.44817 -0.37851 0.00140 0.16816 0.02170 -0.68663 -0.88065 -0.82059 0.71909 0.62944 -0.91637 -0.23539 0.55825 -0.30593 -0.00027 0.43086 -0.48659 -0.58912 0.55416 0.57386 0.07961 0.66055 -0.00321 0.08138 0.00972 -0.75864 0.35584 -0.15772 0.94704 0.92248 -0.84424 0.33546 -0.85854 0.55034 0.09869 0.35163 -0.30906 0.50265 0.83049 -0.59453 -0.42563 0.70527 -0.48366 -0.68570 -0.72666 0.01645 -0.87210 0.46852 -0.00610 -0.13352 -0.50601 -0.67315 -0.49730 -0.17228 0.03819 -0.29290 0.01613 -0.47226 0.06467 -0.27766 -0.90164 0.59915 0.70526 0.06543 -0.81695 -0.94445 0.96978 0.58169 0.34842 -0.60317 -0.24049 -0.71859 0.66536 -0.10465 0.97151 -0.00550 -0.15951 -0.44345 0.52468 0.24655 0.58830 -0.76127 -0.72177 0.00606 0.05580 -0.22012 -0.32823 -0.60893 -0.93068 0.64425 0.28400 -0.81278 0.75503 -0.12516 -0.16126 -0.46751 0.16009 -0.64405 -0.41817 0.69821 0.05283 0.82147 0.55824 0.22433 -0.79345 0.15149 -0.07546 -0.34871 -0.39006 0.56072 0.57376 -0.41412 0.56219 -0.70692 -0.63712 -0.92084 0.28053 0.64299 -0.92883 0.85687 -0.31214 -0.62784 -0.29404 0.62021 -0.80032 0.69396 0.12963 0.92246 0.50001 0.73074 -0.10294 -0.40702 0.15732 0.21190 0.17077 -0.57290 0.21913 -0.96810 -0.73282 0.00105 -0.13327 -0.99956 0.18615 0.89244 -0.58422 0.30542 -0.33057 0.28152 0.71424 0.72309 0.27638 -0.17245 -0.07850 0.53743 -0.87168 0.28129 0.26349 -0.77396 0.41870 -0.47489 0.80584 0.66996 -0.07919 0.44075 0.07221 0.30572 0.30076 0.36534 0.73472 0.90359 0.99554 0.00477 -0.94886 -0.25686 -0.91219 -0.07250 0.01449 -0.97486 -0.91210 0.51682 -0.25615 -0.58124 0.87879
id -0.37499 -0.70279 -0.88224 -0.81082 -0.54463 -0.44442 0.96948 -0.66323 -0.43256 -0.96228 0.80063 0.68568 -0.74245 0.38281 -0.02371 0.70368 0.60253 0.89351 -0.07385 -0.33411 0.14185 0.29290 -0.60654 -0.34641 0.28513 -0.69567 0.42198 -0.05222 0.04632 -0.41890 -0.20320 -0.69579 0.13780 0.85821 -0.43304 0.16288 -0.17901 0.33015 0.43789 -0.16441 0.16677 -0.45469 -0.31801 0.35908 -0.52490 -0.32548 -0.60652 -0.59384 0.14260 -0.86420 0.86368 0.72050 0.72866 0.14143 0.63248 -0.85420 0.89133 -0.50559 -0.96591 0.82386 -0.36479 0.88629 0.77739 0.71865 0.60570 0.15137 -0.79158 0.36040 -0.41500 0.91967 -0.26605 -0.69822 0.60623 -0.35515 -0.74681 0.37706 -0.25406 -0.36602 -0.25261 -0.19512 0.88287 -0.90052 0.80698 0.92447 0.04179 0.93801 0.77258 -0.78866 0.39154 -0.70239 0.04613 0.02850 -0.67484 -0.10769 0.00929 -0.40778 -0.98146 0.98174 -0.26569 0.94967 -0.79148 0.06689 0.92968 0.11545 -0.24166 -0.89684 -0.11204 -0.99803 0.95842 -0.59389 -0.22879 -0.16094 -0.83614 0.91283 0.49231 0.58853 0.76157 -0.37930 0.12349 0.96673 0.05604 0.08045 -0.16899 0.54990 -0.73053 -0.26335 -0.34294 -0.69084 0.09669 -0.69764 0.41573 0.79377 0.12868 0.96781 -0.79410 0.28001 -0.05979 0.55071 0.11359 -0.09070 -0.38339 0.55131 0.58719 0.16254 0.90313 0.67826 -0.36623 0.54350 -0.83107 0.26948 0.73283 -0.13548 -0.43195 0.27992 -0.47952 0.74226 0.73547 0.51430 0.66107 -0.09628 0.03975 0.81730 0.65245 -0.33734 -0.41857 0.80661 -0.71332 0.55719 -0.59154 0.38137 -0.88483 0.52747 -0.23505 0.91293 0.19071 0.98271 0.23885 0.41850 0.55696 -0.36897 -0.08545 -0.51001 0.01388 -0.97898 -0.29709 0.81763 0.44850 0.85502 0.68984 0.87599 0.08678 -0.23037 -0.82306 -0.60921 0.35943 0.62156 0.70628 0.89768 0.27358 0.38473 -0.90805 -0.12637 0.38742 -0.03331 -0.50927 -0.81702 -0.71425 0.68266 -0.25277 0.48819 0.17460 0.44592 0.93601 -0.24560 0.89285 -0.79454 0.40255 0.37480 -0.38207 0.28823 0.25121 0.18201 0.90206 0.28379 -0.90920 -0.78280 -0.64345 -0.55996 -0.27626 0.11125 0.55890 -0.84802 0.09663 0.83226 0.00361 0.37688 0.63930 -0.90375 0.06107 0.77673 0.17351 -0.26640 0.47492 0.56717 -0.95350 -0.47675 0.54262 -0.90945 0.15768 0.80968 0.55603 0.10340 0.17844 -0.05672 -0.96835 0.18650 -0.77300 0.51741 0.82200 0.74272 0.79901 -0.45636 0.27093 0.27057 0.39231 -0.95796 -0.94430 -0.57021 -0.38223 0.04199 -0.17077 -0.69322 0.95839 -0.73019 -0.23385 -0.14214 -0.50143 -0.17340 0.10847 0.48807 0.74153 -0.73516 -0.57861 -0.48292 0.27636 0.45573 0.51715 -0.90356 0.14830 0.58022 -0.20967 -0.47217 0.96638 -0.46485 -0.40452 -0.48547 0.26715 -0.98147 0.03848 0.66603
